-493331311016654471168.00000000000000000000
-4120101257351592448.00000000000000000000
29579.21320389255197369494
10568124731460880957440.00000000000000000000
18073.17147973935061600059
7654.80390005408116849139
-1062614468574389993472.00000000000000000000
93041296831496617984.00000000000000000000
-546504574358480224256.00000000000000000000
1228658862544469360640.00000000000000000000
-276230688950947971072.00000000000000000000
27474906824.51519775390625000000
-493331311016654471168.00000000000000000000
12018684927798333669376.00000000000000000000
-13070490299939803889664.00000000000000000000
-492697296234969563136.00000000000000000000
52833538336200769536.00000000000000000000
-493331311016654471168.00000000000000000000
2360870696335763832832.00000000000000000000
4626906080894423400448.00000000000000000000
38209492005513551872.00000000000000000000
-8537.06684511640014534350
-484879828266340253696.00000000000000000000
-493330696465429102592.00000000000000000000
-493331311016654471168.00000000000000000000
76821965546807.93750000000000000000
-19858981141283738746880.00000000000000000000
-493331311016654471168.00000000000000000000
-493331311016654471168.00000000000000000000
1020478586401288486912.00000000000000000000
25617.39784069304369040765
11297656771344678912.00000000000000000000
-493331311016654471168.00000000000000000000
13170461535614655266816.00000000000000000000
8505585292904753004544.00000000000000000000
-493331311016654471168.00000000000000000000
-493331311016654471168.00000000000000000000
-26076.44456554183489060961
-6500581627008516.00000000000000000000
-4546588540334802731008.00000000000000000000
-490407289503235833856.00000000000000000000
-493331311016654471168.00000000000000000000
-493331311016654471168.00000000000000000000
-19041.52842545758903725073
-190768365461740355584.00000000000000000000
4156381.71281444188207387924
-18092622536090704674816.00000000000000000000
-37067182412432744448.00000000000000000000
-493331311016654471168.00000000000000000000
1025270427793183211520.00000000000000000000
-1940318190721861943296.00000000000000000000
-17448414302148191322112.00000000000000000000
-5327.76986799148744466947
-19043.65981421344258706085
21198.66343915219476912171
-3993.02889156641685985960
2658366879087779643392.00000000000000000000
23035.06174185865529580042
-3450196086780160638976.00000000000000000000
-493331311016654471168.00000000000000000000
-5080317378499145891840.00000000000000000000
6062480524560621895680.00000000000000000000
4299.96142407576280675130
27283620246617539477504.00000000000000000000
19266.52412779879887239076
427.56963992323909451443
-493331311016654471168.00000000000000000000
30190.24460388263105414808
-493331311016500789248.00000000000000000000
-59676724127824461824.00000000000000000000
-493331311016654471168.00000000000000000000
-21643.82518018932751147076
-493331311016654471168.00000000000000000000
-493331311016654471168.00000000000000000000
-410332061853162078208.00000000000000000000
18481.86259555655851727352
12067000455833000607744.00000000000000000000
-5203025461881448955904.00000000000000000000
-4712488924781.14941406250000000000
-493331311016654471168.00000000000000000000
-1107251249468308324352.00000000000000000000
-23032795652210932318208.00000000000000000000
16865930674489264177152.00000000000000000000
-17897.73487123018639977090
-493331311016654471168.00000000000000000000
-13692.29789599660944077186
4261216296569868910592.00000000000000000000
-385119381291550900224.00000000000000000000
-1849329259948031082496.00000000000000000000
-24112.07587889646674739197
22444904431479446044672.00000000000000000000
-16582.83279137888530385680
75929340416395018240.00000000000000000000
-493331311016654471168.00000000000000000000
-5394800706349127696384.00000000000000000000
-2543474014610544132096.00000000000000000000
13176.94568997169335489161
-493331311016654471168.00000000000000000000
27261.94470760416879784316
129222.66775148353190161288
-493331311016653488128.00000000000000000000
-493331311016654471168.00000000000000000000
31658.94707880745045258664
7276.48563322743120806990
-2905.47054275613481877372
-9779055715287499276288.00000000000000000000
-1515.81756855334697320359
-493331311093495758848.00000000000000000000
-493331310591603179520.00000000000000000000
-493331311016654471168.00000000000000000000
-493331311016654471168.00000000000000000000
-62750936975923640.00000000000000000000
-749623586320465133568.00000000000000000000
37813314558084.20312500000000000000
2138458557090779627520.00000000000000000000
15235.05529068397481751163
-493331311016654471168.00000000000000000000
-19864.02159328562629525550
-3207.44339912218174504233
-2755.02940906772573725902
-13214231545088958464.00000000000000000000
-110359855107631936.00000000000000000000
791.48898594251681970491
283074769592702205952.00000000000000000000
483.16929940957129474555
205.16417662347495820541
-28462887551099731968.00000000000000000000
2492177593700802560.00000000000000000000
-14638515384602148864.00000000000000000000
32910505246726856704.00000000000000000000
-7399036311186106368.00000000000000000000
735935004.23505556583404541016
-13214231545088958464.00000000000000000000
321929060566026813440.00000000000000000000
-350102418748387622912.00000000000000000000
-13197249006293827584.00000000000000000000
1415184062576806400.00000000000000000000
-13214231545088958464.00000000000000000000
63237607937565106176.00000000000000000000
123934984309672050688.00000000000000000000
1023468535861970176.00000000000000000000
-229.24092311700468371782
-12987852542848399360.00000000000000000000
-13214215083895422976.00000000000000000000
-13214231545088958464.00000000000000000000
2057731220003.82397460937500000000
-531936994855814430720.00000000000000000000
-13214231545088958464.00000000000000000000
-13214231545088958464.00000000000000000000
27334247850034511872.00000000000000000000
685.77861082079732568673
302615806375303872.00000000000000000000
-13214231545088958464.00000000000000000000
352780219703964008448.00000000000000000000
227828177488520183808.00000000000000000000
-13214231545088958464.00000000000000000000
-13214231545088958464.00000000000000000000
-699.08232326953418578341
-174122722152014.28125000000000000000
-121783621616110780416.00000000000000000000
-13135909540265246720.00000000000000000000
-13214231545088958464.00000000000000000000
-13214231545088958464.00000000000000000000
-509.69204492773036463404
-5109866932010902528.00000000000000000000
111331.44589441856078337878
-484623817931001036800.00000000000000000000
-992870957475877120.00000000000000000000
-13214231545088958464.00000000000000000000
27462600744460263424.00000000000000000000
-51972808680049868800.00000000000000000000
-467368240236112248832.00000000000000000000
-142.96634026850438203837
-509.82963591579266449116
567.00398061868838794908
-107.02365878510991592520
71206255689851240448.00000000000000000000
616.37834377535500607337
-92415966610182864896.00000000000000000000
-13214231545088958464.00000000000000000000
-136079929781227126784.00000000000000000000
162387871193588105216.00000000000000000000
114.79799522787334353779
730811256605826875392.00000000000000000000
515.31982045952725002280
11.03259320719734049021
-13214231545088958464.00000000000000000000
807.96079673669146359316
-13214231545084841984.00000000000000000000
-1598483681995298048.00000000000000000000
-13214231545088958464.00000000000000000000
-579.00989542382694708067
-13214231545088958464.00000000000000000000
-13214231545088958464.00000000000000000000
-10991037371066841088.00000000000000000000
496.00318747771706284766
323223226495526764544.00000000000000000000
-139366753443253092352.00000000000000000000
-126227381913.53660583496093750000
-13214231545088958464.00000000000000000000
-29658515610758258688.00000000000000000000
-616949883541364277248.00000000000000000000
451766000209533861888.00000000000000000000
-478.77133510615152545142
-13214231545088958464.00000000000000000000
-366.43476134726131476782
114139722229550055424.00000000000000000000
-10315697713166540800.00000000000000000000
-49535605177179406336.00000000000000000000
-645.85476977265886944224
601202797271770857472.00000000000000000000
-444.06009733558590824032
2033821618296294912.00000000000000000000
-13214231545088958464.00000000000000000000
-144503590348637356032.00000000000000000000
-68128768248496717824.00000000000000000000
353.12152116967212123200
-13214231545088958464.00000000000000000000
731.25108394326844063471
3461.44285996305234220927
-13214231545088931840.00000000000000000000
-13214231545088958464.00000000000000000000
848.41149270637788504246
194.03464582014785833053
-76.91424621935620109525
-261938992373772288000.00000000000000000000
-40.70728016206172839020
-13214231547147206656.00000000000000000000
-13214231533703655424.00000000000000000000
-13214231545088958464.00000000000000000000
-13214231545088958464.00000000000000000000
-1680828668997955.00000000000000000000
-20079203205012459520.00000000000000000000
1012856639948.48095703125000000000
57280139922074451968.00000000000000000000
408.39409567384592492090
-13214231545088958464.00000000000000000000
-532.89384255118795863382
-86.03877369334715297100
-74.78022692962515804993
-4404743848362986496.00000000000000000000
-36786618369210648.00000000000000000000
264.23160657614647561786
94358256530900729856.00000000000000000000
160.38854820953989133159
69.18999922586701245564
-9487629183699910656.00000000000000000000
830725864566934144.00000000000000000000
-4879505128200716288.00000000000000000000
10970168415575619584.00000000000000000000
-2466345437062035456.00000000000000000000
245311667.26146200299263000488
-4404743848362986496.00000000000000000000
107309686855342260224.00000000000000000000
-116700806249462530048.00000000000000000000
-4399083002097942528.00000000000000000000
471728020858935424.00000000000000000000
-4404743848362986496.00000000000000000000
21079202645855035392.00000000000000000000
41311661436557352960.00000000000000000000
341156178620656704.00000000000000000000
-76.21842145014258562696
-4329284180949466624.00000000000000000000
-4404738361298473984.00000000000000000000
-4404743848362986496.00000000000000000000
685910406668.70764160156250000000
-177312331618604810240.00000000000000000000
-4404743848362986496.00000000000000000000
-4404743848362986496.00000000000000000000
9111415950011504640.00000000000000000000
228.40384120326314132399
100871935458434624.00000000000000000000
-4404743848362986496.00000000000000000000
117593406567988002816.00000000000000000000
75942725829506727936.00000000000000000000
-4404743848362986496.00000000000000000000
-4404743848362986496.00000000000000000000
-232.13666137608407780135
-58040907384003.87500000000000000000
-40594540538703593472.00000000000000000000
-4378636513421748736.00000000000000000000
-4404743848362986496.00000000000000000000
-4404743848362986496.00000000000000000000
-169.22403185857831431349
-1703288977336967424.00000000000000000000
37110.40915646180656040087
-161541272643667001344.00000000000000000000
-330956985825292352.00000000000000000000
-4404743848362986496.00000000000000000000
9154200248153421824.00000000000000000000
-17324269560016623616.00000000000000000000
-155789413412037427200.00000000000000000000
-46.94446897648883521015
-170.12053424522920863637
188.34898831584845879661
-35.56829570605948731554
23735418563283746816.00000000000000000000
205.68335145975683531105
-30805322203394289664.00000000000000000000
-4404743848362986496.00000000000000000000
-45359976593742372864.00000000000000000000
54129290397862699008.00000000000000000000
37.52759037385428086964
243603752201942302720.00000000000000000000
171.54546466523146364125
4.75897189122173713827
-4404743848362986496.00000000000000000000
270.47865937086282883683
-4404743848361614336.00000000000000000000
-532827893998432704.00000000000000000000
-4404743848362986496.00000000000000000000
-193.30524900404904542484
-4404743848362986496.00000000000000000000
-4404743848362986496.00000000000000000000
-3663679123688947200.00000000000000000000
165.75843083738999439447
107741075498508926976.00000000000000000000
-46455584481084366848.00000000000000000000
-42075793970.33863067626953125000
-4404743848362986496.00000000000000000000
-9886171870252752896.00000000000000000000
-205649961180454748160.00000000000000000000
150588666736511287296.00000000000000000000
-160.73704685721523333086
-4404743848362986496.00000000000000000000
-121.40218273443467467132
38046574076516687872.00000000000000000000
-3438565904388847104.00000000000000000000
-16511868392393134080.00000000000000000000
-215.46207148241174422765
200400932423923630080.00000000000000000000
-148.99850111873308833310
677940539432098304.00000000000000000000
-4404743848362986496.00000000000000000000
-48167863449545785344.00000000000000000000
-22709589416165572608.00000000000000000000
118.34029905555794925931
-4404743848362986496.00000000000000000000
243.65030296712018298422
1154.02444913823751448945
-4404743848362977280.00000000000000000000
-4404743848362986496.00000000000000000000
283.24818226501923845717
65.24642760164424259983
-25.83606783050851518624
-87312997457924096000.00000000000000000000
-14.20045106764706410729
-4404743849049069056.00000000000000000000
-4404743844567885312.00000000000000000000
-4404743848362986496.00000000000000000000
-4404743848362986496.00000000000000000000
-560276222999318.75000000000000000000
-6693067735004152832.00000000000000000000
337618879982.69403076171875000000
19093379974024818688.00000000000000000000
135.31581594145458780076
-4404743848362986496.00000000000000000000
-177.71358948652590470374
-28.28688508853523586595
-24.57129783219061280874
-202618217024697368576.00000000000000000000
-1692184444983689728.00000000000000000000
12148.71471430381097889040
4340479800421433475072.00000000000000000000
7422.84366156456417229492
3143.96859403037069569109
-436430942450195890176.00000000000000000000
38213389770078969856.00000000000000000000
-224457235897232949248.00000000000000000000
504627747116478496768.00000000000000000000
-113451890104853626880.00000000000000000000
11284336731.89838600158691406250
-202618217024697368576.00000000000000000000
4936245595345744035840.00000000000000000000
-5368237087475276709888.00000000000000000000
-202357818096505356288.00000000000000000000
21699488959511027712.00000000000000000000
-202618217024697368576.00000000000000000000
969643321709331611648.00000000000000000000
1900336426081638154240.00000000000000000000
15693184216550207488.00000000000000000000
-3506.87635882729682634817
-199147072323675455488.00000000000000000000
-202617964619729797120.00000000000000000000
-202618217024697368576.00000000000000000000
31551878706725.11328125000000000000
-8156367254455821795328.00000000000000000000
-202618217024697368576.00000000000000000000
-202618217024697368576.00000000000000000000
419125133700529192960.00000000000000000000
10521.04228448464527900796
4640109031087992832.00000000000000000000
-202618217024697368576.00000000000000000000
5409296702127448522752.00000000000000000000
3493365388157309681664.00000000000000000000
-202618217024697368576.00000000000000000000
-202618217024697368576.00000000000000000000
-10710.22532740790848038159
-2669881739664212.50000000000000000000
-1867348864780365201408.00000000000000000000
-201417279617400438784.00000000000000000000
-202618217024697368576.00000000000000000000
-202618217024697368576.00000000000000000000
-7820.67517021729145199060
-78351292957500506112.00000000000000000000
1707084.34797963127493858337
-7430898541608682127360.00000000000000000000
-15224021347963447296.00000000000000000000
-202618217024697368576.00000000000000000000
421093211415057399808.00000000000000000000
-796916399760764698624.00000000000000000000
-7166313016953722109952.00000000000000000000
-2188.21416217354772015824
-7822.76275224546225217637
8705.99835723872820381075
-1639.50658694435310280824
1091829253911052288000.00000000000000000000
9460.50214844244692358188
-1417044821356137414656.00000000000000000000
-202618217024697368576.00000000000000000000
-2086558923312149037056.00000000000000000000
2489947358301683974144.00000000000000000000
1765.67148801345388164918
11205772601289345073152.00000000000000000000
7912.90105995632347912760
175.56313903560348421706
-202618217024697368576.00000000000000000000
12399.48758902072768250946
-202618217024634257408.00000000000000000000
-24510083123927904256.00000000000000000000
-202618217024697368576.00000000000000000000
-8890.07179752869706135243
-202618217024697368576.00000000000000000000
-202618217024697368576.00000000000000000000
-168529239689691561984.00000000000000000000
7591.37215869748433760833
4956089472931410739200.00000000000000000000
-2136956886129880858624.00000000000000000000
-1935486522678.30175781250000000000
-202618217024697368576.00000000000000000000
-454763906031626616832.00000000000000000000
-9459898214300919005184.00000000000000000000
6927078669879519215616.00000000000000000000
-7349.81316932330719282618
-202618217024697368576.00000000000000000000
-5624.84022535775784490397
1750142407519767625728.00000000000000000000
-158174031601886953472.00000000000000000000
-759545946050084208640.00000000000000000000
-9903.70222397405814263038
9218442891500487442432.00000000000000000000
-6811.71568290318737126654
31185264813876523008.00000000000000000000
-202618217024697368576.00000000000000000000
-2215721718679106224128.00000000000000000000
-1044641113143616339968.00000000000000000000
5412.27889923766088031698
-202618217024697368576.00000000000000000000
11198.04210186683485517278
53073.97144802720140432939
-202618217024696942592.00000000000000000000
-202618217024697368576.00000000000000000000
13002.31951181588556210045
2988.25720219571167035610
-1193.34265344608343184518
-4016397883064508219392.00000000000000000000
-622.51866665827844826708
-202618217056257179648.00000000000000000000
-202618216850122735616.00000000000000000000
-202618217024697368576.00000000000000000000
-202618217024697368576.00000000000000000000
-25772706257968636.00000000000000000000
-307881115810191048704.00000000000000000000
15530468479213.15429687500000000000
878295478805141651456.00000000000000000000
6257.76861779902719717938
-202618217024697368576.00000000000000000000
-8158.38990982817358599277
-1317.92393480585178622277
-1131.01844919679251688649
-4404743848362986496.00000000000000000000
-36786618369210648.00000000000000000000
263.77993060605939490415
94358256530900729856.00000000000000000000
162.14119457607839080993
67.95926961658371112662
-9487629183699910656.00000000000000000000
830725864566934144.00000000000000000000
-4879505128200716288.00000000000000000000
10970168415575619584.00000000000000000000
-2466345437062035456.00000000000000000000
245311667.50216946005821228027
-4404743848362986496.00000000000000000000
107309686855342260224.00000000000000000000
-116700806249462530048.00000000000000000000
-4399083002097942528.00000000000000000000
471728020858935424.00000000000000000000
-4404743848362986496.00000000000000000000
21079202645855035392.00000000000000000000
41311661436557352960.00000000000000000000
341156178620656704.00000000000000000000
-77.13283696805113720529
-4329284180949466624.00000000000000000000
-4404738361298473984.00000000000000000000
-4404743848362986496.00000000000000000000
685910406667.58972167968750000000
-177312331618604810240.00000000000000000000
-4404743848362986496.00000000000000000000
-4404743848362986496.00000000000000000000
9111415950011504640.00000000000000000000
229.12417674580632365178
100871935458434624.00000000000000000000
-4404743848362986496.00000000000000000000
117593406567988002816.00000000000000000000
75942725829506727936.00000000000000000000
-4404743848362986496.00000000000000000000
-4404743848362986496.00000000000000000000
-232.89210608548188474742
-58040907384005.42187500000000000000
-40594540538703593472.00000000000000000000
-4378636513421748736.00000000000000000000
-4404743848362986496.00000000000000000000
-4404743848362986496.00000000000000000000
-169.11249617194889083294
-1703288977336967424.00000000000000000000
37110.40096095241460716352
-161541272643667001344.00000000000000000000
-330956985825292352.00000000000000000000
-4404743848362986496.00000000000000000000
9154200248153421824.00000000000000000000
-17324269560016623616.00000000000000000000
-155789413412037427200.00000000000000000000
-46.60421767662842995605
-170.96310248522888741718
190.20169237188886768308
-36.38397753497595488170
23735418563283746816.00000000000000000000
205.17200902894944647414
-30805322203394289664.00000000000000000000
-4404743848362986496.00000000000000000000
-45359976593742372864.00000000000000000000
54129290397862699008.00000000000000000000
38.11258357622902082085
243603752201942302720.00000000000000000000
171.24698083358430267253
4.01199015152646154547
-4404743848362986496.00000000000000000000
270.13406153772433526683
-4404743848361614336.00000000000000000000
-532827893998432704.00000000000000000000
-4404743848362986496.00000000000000000000
-193.92078666392799846108
-4404743848362986496.00000000000000000000
-4404743848362986496.00000000000000000000
-3663679123688947200.00000000000000000000
164.69968138616596320389
107741075498508926976.00000000000000000000
-46455584481084366848.00000000000000000000
-42075793972.18245697021484375000
-4404743848362986496.00000000000000000000
-9886171870252752896.00000000000000000000
-205649961180454748160.00000000000000000000
150588666736511287296.00000000000000000000
-158.85398637272407995624
-4404743848362986496.00000000000000000000
-121.55257080881999343092
38046574076516687872.00000000000000000000
-3438565904388847104.00000000000000000000
-16511868392393134080.00000000000000000000
-215.57913561230216714648
200400932423923630080.00000000000000000000
-147.30742192348310481975
677940539432098304.00000000000000000000
-4404743848362986496.00000000000000000000
-48167863449545785344.00000000000000000000
-22709589416165572608.00000000000000000000
118.11963866664999045497
-4404743848362986496.00000000000000000000
243.05958327450153433347
1154.34165291774957040616
-4404743848362977280.00000000000000000000
-4404743848362986496.00000000000000000000
283.60483611857654295818
65.28406236511170845915
-25.71092243128009968700
-87312997457924096000.00000000000000000000
-13.58251645969127885394
-4404743849049069056.00000000000000000000
-4404743844567885312.00000000000000000000
-4404743848362986496.00000000000000000000
-4404743848362986496.00000000000000000000
-560276222999317.81250000000000000000
-6693067735004152832.00000000000000000000
337618879981.94592285156250000000
19093379974024818688.00000000000000000000
135.79559573244276293735
-4404743848362986496.00000000000000000000
-177.60666970529456420991
-28.45162892986307312526
-25.19310946740171885949
0.24275292888730870544
0.29191074003144779070
0.02458757046989457073
-0.74597269289936307679
0.42879195157699445673
-0.72001133420505758487
-0.53814891831582267745
-0.46690109131897417072
-0.43991365141372329450
0.08298905765741415586
0.04547228122163882169
0.73696744552853110655
-0.75237608456778781729
-0.09796016678798058486
-0.45216901143942334063
0.96131309775258233508
-0.90535475970479117880
0.81970475948828069868
0.90191193111474476929
-0.10044191035583904803
0.20249457568218987014
0.47542018486665704735
-0.64752236601766455237
0.35453687919473697576
0.60280399527574468621
0.79380790656192012911
0.72671074620721243242
0.66412054953068211383
0.88060930231415568414
0.63830833676895837314
0.75441111862967358270
0.05215141150987934182
0.09526171206778455414
-0.52375679313788614522
-0.01258414218706671583
-0.95358342866414069761
0.41803952018028778248
-0.33050454185578104216
-0.72186473740075074446
0.22622358485460813959
0.72481359085590457703
-0.53344596846494662934
0.75570509696845644676
-0.40981054833430530238
0.45919010632530010696
-0.21913164486507030748
0.83279550362829213306
-0.59986852219572206479
0.10224808714480304594
0.93930074790833884002
-0.69301270836441075662
-0.24083822388777964552
-0.46194374774276814044
-0.37818872909454581688
0.35159294888007286417
-0.24923989680062041963
0.85525542269166709985
-0.35819502197606434279
-0.15404671993937280039
0.48219306986829435502
0.97326527802927453870
0.16874616751470794540
-0.21918310201909529944
0.47232545954246041298
0.89389300435435781189
-0.46996968590447785186
-0.43967933100806688707
-0.70768887246573264349
-0.91357525155631524871
-0.48293248610467165438
0.53377222360367282405
-0.69313724218728700599
-0.97294594122537858549
-0.95958492852299026588
-0.35435963509097545554
-0.09151330147606018262
-0.14709875396090021926
-0.77586560338429333417
0.37598346580487107538
-0.17257440578933191944
-0.63066876211919964401
0.70815049232963289683
0.50712077101688102232
0.62871002891839866678
0.64968721802819517919
-0.04262456979782858202
-0.53118260108665149577
0.33635316356502764634
0.42208832167610332853
-0.19307794243672793399
0.52065899798308445945
0.18900947161722148060
0.58737650258920859336
-0.40988184533345783933
-0.99758666643527971196
0.44543163620819004045
-0.50442714958627532518
0.79807965347747789053
-0.48200743897237219304
0.77901905246714919784
0.37643645468793951459
-0.35844995130962353791
-0.95295122458331082971
-0.84644733380783632182
0.28437892103997697291
0.40052686971530326865
0.28908541476807836368
-0.53765716618887948730
-0.04642066803347710824
-0.65790403238982486656
0.38181111321433491845
0.07231066970660071647
-0.41344358705895656314
-0.93896871266509063236
0.64811159550848262967
0.04899887848062611795
-0.09556101160532393113
-0.24524126161741433005
-0.91191262646650950163
-0.13755288731595904927
-471307591774839570432.00000000000000000000
-3936168165505539584.00000000000000000000
28257.39710169063982903026
10096333448806379028480.00000000000000000000
17267.43273452121502486989
7314.50464782498238491826
-1015176322655890440192.00000000000000000000
88887667508661960704.00000000000000000000
-522107048717476626432.00000000000000000000
1173808020466591334400.00000000000000000000
-263898961765637783552.00000000000000000000
26248348484.52375411987304687500
-471307591774839570432.00000000000000000000
11482136493521622794240.00000000000000000000
-12486986268692491272192.00000000000000000000
-470701881224479834112.00000000000000000000
50474898231906091008.00000000000000000000
-471307591774839570432.00000000000000000000
2255474683106488745984.00000000000000000000
4420347773711637020672.00000000000000000000
36503711112410267648.00000000000000000000
-8154.56144104322083876468
-463233407361592918016.00000000000000000000
-471307004658936709120.00000000000000000000
-471307591774839570432.00000000000000000000
73392413513468.15625000000000000000
-18972419483190714957824.00000000000000000000
-471307591774839570432.00000000000000000000
-471307591774839570432.00000000000000000000
974921506651230961664.00000000000000000000
24475.25485635050426935777
10793297094052505600.00000000000000000000
-471307591774839570432.00000000000000000000
12582494502774716235776.00000000000000000000
8125871663757219856384.00000000000000000000
-471307591774839570432.00000000000000000000
-471307591774839570432.00000000000000000000
-24913.39654569250706117600
-6210377090088494.00000000000000000000
-4343615837641284517888.00000000000000000000
-468514106936127127552.00000000000000000000
-471307591774839570432.00000000000000000000
-471307591774839570432.00000000000000000000
-18192.12717208570757065900
-182251920575055527936.00000000000000000000
3970828.57324753934517502785
-17284916172872369569792.00000000000000000000
-35412397483306283008.00000000000000000000
-471307591774839570432.00000000000000000000
979499426552416174080.00000000000000000000
-1853696842921778610176.00000000000000000000
-16669467235088005595136.00000000000000000000
-5090.22691701967778499238
-18194.17413319233673973940
20251.40591637901525245979
-3814.81284575920381030301
2539689786271361138688.00000000000000000000
22006.65849223313853144646
-3296169475763188793344.00000000000000000000
-471307591774839570432.00000000000000000000
-4853517495530433806336.00000000000000000000
5791834072571308933120.00000000000000000000
4108.78418132164824783104
26065601485607828193280.00000000000000000000
18406.78254032805853057653
408.06949606834660926324
-471307591774839570432.00000000000000000000
28843.31817344389128265902
-471307591774692704256.00000000000000000000
-57012584657832296448.00000000000000000000
-471307591774839570432.00000000000000000000
-20679.00021941803424851969
-471307591774839570432.00000000000000000000
-471307591774839570432.00000000000000000000
-392013666234717372416.00000000000000000000
17656.11096648836610256694
11528295078340455301120.00000000000000000000
-4970747539476026753024.00000000000000000000
-4502109954923.79980468750000000000
-471307591774839570432.00000000000000000000
-1057820390117044518912.00000000000000000000
-22004545846308656644096.00000000000000000000
16112987340806706692096.00000000000000000000
-17098.86128028317398275249
-471307591774839570432.00000000000000000000
-13082.31903611320376512595
4070983426187285495808.00000000000000000000
-367926551769606651904.00000000000000000000
-1766769917986065350656.00000000000000000000
-23035.90524640818694024347
21442899769359830351872.00000000000000000000
-15843.16413460506737465039
72539637719234519040.00000000000000000000
-471307591774839570432.00000000000000000000
-5153961389101398622208.00000000000000000000
-2429926067529716334592.00000000000000000000
12588.43629100265025044791
-471307591774839570432.00000000000000000000
26045.98827296750823734328
123455.08158359317167196423
-471307591774838587392.00000000000000000000
-471307591774839570432.00000000000000000000
30245.63489447100801044144
6951.77076083670908701606
-2775.12560580035051316372
-9342490727997877780480.00000000000000000000
-1448.08316449327094233013
-471307591848250376192.00000000000000000000
-471307591368763703296.00000000000000000000
-471307591774839570432.00000000000000000000
-471307591774839570432.00000000000000000000
-59949555860927048.00000000000000000000
-716158247645444308992.00000000000000000000
36125220158169.19531250000000000000
2042991657220655546368.00000000000000000000
14555.32378349702048581094
-471307591774839570432.00000000000000000000
-18977.83606837689512758516
-3063.40328216068064648425
-2632.68549530664176927530
0.13644011739039840769
0.73395900227546251315
-0.17544673570565705312
0.51768404113616495188
-0.85897728142299212273
0.48436638598533354738
0.51806577165483513880
0.65149177143861258799
0.05032261616469480003
0.78866040210468324467
-0.78897726977845739071
0.57709134076213053355
-0.62639531789883351465
-0.39423623749763980761
-0.28951386289360925286
-0.72455580728965429671
-0.98319057439821944122
0.89779577715697578277
-0.13924454151924403611
-0.83991344695133507425
0.78137622307862297788
-0.87517094995751565367
0.59967348474298476368
0.34193506658564798428
-0.04620739443673305136
0.48949042433777045780
0.38443172618660126361
-0.90002615531362073487
0.82151407577175805663
-0.98870353674688271628
0.16056383549905395292
-0.76283362578368774098
0.69553504781826114289
-0.57446114391440994407
-0.08338117901840369495
0.60443115159222737809
-0.09040453669195658293
-0.98587123783853525261
-0.58083125402004109894
0.15316986037079804994
0.40967379823108651671
-0.42600315121572307486
0.08221347423126035281
0.03772009774952667094
-0.97572384741794571106
-0.61112965048827438963
0.77839798627801704001
0.72306647431347470523
0.28151721520408723443
0.05547346375059225565
-0.44386220571284396019
-0.40388711724252968072
-0.65382375113759261254
0.58025724290437996622
0.71465479069074921981
0.45995387854319402798
0.95686894461645000121
0.78327840531318182471
0.61131902729257814322
-0.79461277864292989559
0.65820685626921737743
-0.23791029435437172079
0.11137734023746914680
-0.90074203874196034914
-0.56336670535120803027
-0.41466546479708010775
-0.48916752925032813692
-0.71123555250632319868
0.29233898283177550681
-0.90699782208291113150
-0.97948828695562661917
0.74242840453921021826
0.92288366015653577890
-0.12313805128152455204
0.27324230182455644389
-0.34762360059364871834
-0.16780562603977666747
-0.21965357911951821634
0.87529476826607588436
0.55908068985602099588
-0.02014280932414991288
-0.20757225417133418066
0.14013770543298820215
0.40053338531243687370
0.25335945644532076315
0.41928165690537300136
-0.03541322034248117756
-0.49876155934069077436
-0.65237829985845263714
0.77335664363602485416
-0.18886364309104686221
0.64189901647640534854
0.47650365340135536485
-0.93916377445103838006
-0.41064125334159806702
-0.72635270909531046701
0.86534514200058598732
0.10025559491429980596
-0.40108797047130240188
-0.17946249619697163258
0.33618349958899518271
0.23130766960407145305
-0.97004875446521876547
0.05385850717022711009
0.16578010200674642149
-0.09172258455632509300
0.83908014346091253088
0.92792849946063094002
-0.67302283712698174334
-0.14799654285695185152
0.19263329843007404030
0.74702764191592296861
-0.28995718556337513050
0.20464091665577810453
-0.84107016315160754161
0.57714201232171946643
-0.93398890804686385270
-0.76653648763301307500
0.21348358848608617322
-0.11404592707013383457
-4404743848362986496.00000000000000000000
-36786618369210648.00000000000000000000
264.57256691547405580422
94358256530900729856.00000000000000000000
160.94139792198836858006
67.96508939190592002433
-9487629183699910656.00000000000000000000
830725864566934144.00000000000000000000
-4879505128200716288.00000000000000000000
10970168415575619584.00000000000000000000
-2466345437062035456.00000000000000000000
245311667.13453614711761474609
-4404743848362986496.00000000000000000000
107309686855342260224.00000000000000000000
-116700806249462530048.00000000000000000000
-4399083002097942528.00000000000000000000
471728020858935424.00000000000000000000
-4404743848362986496.00000000000000000000
21079202645855035392.00000000000000000000
41311661436557352960.00000000000000000000
341156178620656704.00000000000000000000
-77.20993280470453612452
-4329284180949466624.00000000000000000000
-4404738361298473984.00000000000000000000
-4404743848362986496.00000000000000000000
685910406668.00012207031250000000
-177312331618604810240.00000000000000000000
-4404743848362986496.00000000000000000000
-4404743848362986496.00000000000000000000
9111415950011504640.00000000000000000000
228.38007384507639585536
100871935458434624.00000000000000000000
-4404743848362986496.00000000000000000000
117593406567988002816.00000000000000000000
75942725829506727936.00000000000000000000
-4404743848362986496.00000000000000000000
-4404743848362986496.00000000000000000000
-233.04943567354800393332
-58040907384004.12500000000000000000
-40594540538703593472.00000000000000000000
-4378636513421748736.00000000000000000000
-4404743848362986496.00000000000000000000
-4404743848362986496.00000000000000000000
-170.22093368969410676073
-1703288977336967424.00000000000000000000
37110.95003238820936530828
-161541272643667001344.00000000000000000000
-330956985825292352.00000000000000000000
-4404743848362986496.00000000000000000000
9154200248153421824.00000000000000000000
-17324269560016623616.00000000000000000000
-155789413412037427200.00000000000000000000
-46.92239604973748612338
-169.06023704462097612122
189.83653599691857039033
-36.01592191350444949194
23735418563283746816.00000000000000000000
205.16863816657229335760
-30805322203394289664.00000000000000000000
-4404743848362986496.00000000000000000000
-45359976593742372864.00000000000000000000
54129290397862699008.00000000000000000000
39.15139004319443927216
243603752201942302720.00000000000000000000
171.39873606648797021990
4.59334813736389513394
-4404743848362986496.00000000000000000000
270.01792701897181814275
-4404743848361614336.00000000000000000000
-532827893998432704.00000000000000000000
-4404743848362986496.00000000000000000000
-192.70198059724856420871
-4404743848362986496.00000000000000000000
-4404743848362986496.00000000000000000000
-3663679123688947200.00000000000000000000
165.27305889027164198524
107741075498508926976.00000000000000000000
-46455584481084366848.00000000000000000000
-42075793971.38584899902343750000
-4404743848362986496.00000000000000000000
-9886171870252752896.00000000000000000000
-205649961180454748160.00000000000000000000
150588666736511287296.00000000000000000000
-158.95089764589945957596
-4404743848362986496.00000000000000000000
-122.91600423537305175614
38046574076516687872.00000000000000000000
-3438565904388847104.00000000000000000000
-16511868392393134080.00000000000000000000
-215.70113665791799917315
200400932423923630080.00000000000000000000
-147.26618358163065636290
677940539432098304.00000000000000000000
-4404743848362986496.00000000000000000000
-48167863449545785344.00000000000000000000
-22709589416165572608.00000000000000000000
117.96555660395740972035
-4404743848362986496.00000000000000000000
242.92637373946544698811
1152.86216946479612488474
-4404743848362977280.00000000000000000000
-4404743848362986496.00000000000000000000
283.42929715645857413620
64.64107870863804805595
-26.15903649616565829206
-87312997457924096000.00000000000000000000
-12.53072844380853290147
-4404743849049069056.00000000000000000000
-4404743844567885312.00000000000000000000
-4404743848362986496.00000000000000000000
-4404743848362986496.00000000000000000000
-560276222999319.06250000000000000000
-6693067735004152832.00000000000000000000
337618879982.11303710937500000000
19093379974024818688.00000000000000000000
136.64956246263565731169
-4404743848362986496.00000000000000000000
-177.64524931999559953510
-27.78616746169124596122
-23.82386182360064452723
-352379507869038936064.00000000000000000000
-2942929469536851968.00000000000000000000
21126.76340445059395278804
7548660522472058126336.00000000000000000000
12908.97926886993263906334
5468.31698821295685775112
-759010334695992852480.00000000000000000000
66458069165354729472.00000000000000000000
-390360410256057303040.00000000000000000000
877613473246049599488.00000000000000000000
-197307634964962836480.00000000000000000000
19624933446.61663436889648437500
-352379507869038936064.00000000000000000000
8584774948427380293632.00000000000000000000
-9336064499957001879552.00000000000000000000
-351926640167835402240.00000000000000000000
37738241668714831872.00000000000000000000
-352379507869038936064.00000000000000000000
1686336211668402962432.00000000000000000000
3304932914924588367872.00000000000000000000
27292494289652535296.00000000000000000000
-6098.43497253682107839268
-346342734475957305344.00000000000000000000
-352379068903877902336.00000000000000000000
-352379507869038936064.00000000000000000000
54872832533435.53906250000000000000
-14184986529488384819200.00000000000000000000
-352379507869038936064.00000000000000000000
-352379507869038936064.00000000000000000000
728913276000920403968.00000000000000000000
18297.76936092718824511394
8069754836674769920.00000000000000000000
-352379507869038936064.00000000000000000000
9407472525439040225280.00000000000000000000
6075418066360538759168.00000000000000000000
-352379507869038936064.00000000000000000000
-352379507869038936064.00000000000000000000
-18626.11701751931832404807
-4643272590720370.00000000000000000000
-3247563243096287215616.00000000000000000000
-350290921073739890688.00000000000000000000
-352379507869038936064.00000000000000000000
-352379507869038936064.00000000000000000000
-13601.67844571590103441849
-136263118186957389824.00000000000000000000
2968844.31559269735589623451
-12923301811493359583232.00000000000000000000
-26476558866023387136.00000000000000000000
-352379507869038936064.00000000000000000000
732336019852273778688.00000000000000000000
-1385941564801329922048.00000000000000000000
-12463153072962994700288.00000000000000000000
-3805.11319086509229236981
-13602.78420491999531805050
15141.31698475388293445576
-2851.92865214361518155783
1898833485062699745280.00000000000000000000
16453.87565301442009513266
-2464425776271543238656.00000000000000000000
-352379507869038936064.00000000000000000000
-3628798127499389698048.00000000000000000000
4330343231829015789568.00000000000000000000
3071.66416940329690987710
19488300176155384741888.00000000000000000000
13762.36392879440427350346
304.04730098826019002445
-352379507869038936064.00000000000000000000
21566.00676973018562421203
-352379507868929163264.00000000000000000000
-42626231519874613248.00000000000000000000
-352379507869038936064.00000000000000000000
-15460.58568528099567629397
-352379507869038936064.00000000000000000000
-352379507869038936064.00000000000000000000
-293094329895115784192.00000000000000000000
13201.27977170235135417897
8619286039880714420224.00000000000000000000
-3716446758486749478912.00000000000000000000
-3366063517700.30615234375000000000
-352379507869038936064.00000000000000000000
-790893749620220231680.00000000000000000000
-16451996894436379328512.00000000000000000000
12047093338920902983680.00000000000000000000
-12783.16587126330341561697
-352379507869038936064.00000000000000000000
-9780.77314624253449437674
3043725926121335160832.00000000000000000000
-275085272351107776512.00000000000000000000
-1320949471391450660864.00000000000000000000
-17221.91768183808380854316
16032074593913890930688.00000000000000000000
-11845.22584143769563524984
54235243154567864320.00000000000000000000
-352379507869038936064.00000000000000000000
-3853429075963663089664.00000000000000000000
-1816767153293245808640.00000000000000000000
9412.80727428625323227607
-352379507869038936064.00000000000000000000
19473.91107905328681226820
92301.30488532074377872050
-352379507869038149632.00000000000000000000
-352379507869038936064.00000000000000000000
22613.58759053090761881322
5198.10709257943381089717
-2075.92888733747804508312
-6985039796633927155712.00000000000000000000
-1082.18806348356270063960
-352379507923925532672.00000000000000000000
-352379507565430833152.00000000000000000000
-352379507869038936064.00000000000000000000
-352379507869038936064.00000000000000000000
-44822097839945456.00000000000000000000
-535445418800332210176.00000000000000000000
27009510398632.55859375000000000000
1527470397921985560576.00000000000000000000
10883.11905659997501061298
-352379507869038936064.00000000000000000000
-14189.10570228412143478636
-2290.65578299449498445028
-1968.53532616955726552987
-30833206938540904448.00000000000000000000
-257506328584474528.00000000000000000000
1848.14868554210829643125
660507795716305059840.00000000000000000000
1130.17629562983938740217
478.28451240151207457529
-66413404285899374592.00000000000000000000
5815081051968538624.00000000000000000000
-34156535897405014016.00000000000000000000
76791178909029335040.00000000000000000000
-17264418059434248192.00000000000000000000
1717181676.87334847450256347656
-30833206938540904448.00000000000000000000
751167807987395854336.00000000000000000000
-816905643746237743104.00000000000000000000
-30793581014685597696.00000000000000000000
3302096146012548096.00000000000000000000
-30833206938540904448.00000000000000000000
147554418520985239552.00000000000000000000
289181630055901462528.00000000000000000000
2388093250344596992.00000000000000000000
-533.50702193731865463633
-30304989266646265856.00000000000000000000
-30833168529089318912.00000000000000000000
-30833206938540904448.00000000000000000000
4801372846676.22460937500000000000
-1241186321330233671680.00000000000000000000
-30833206938540904448.00000000000000000000
-30833206938540904448.00000000000000000000
63779911650080530432.00000000000000000000
1601.96567646517451066757
706103548209042432.00000000000000000000
-30833206938540904448.00000000000000000000
823153845975915954176.00000000000000000000
531599080806547062784.00000000000000000000
-30833206938540904448.00000000000000000000
-30833206938540904448.00000000000000000000
-1628.85262932618547893071
-406286351688031.75000000000000000000
-284161783770925170688.00000000000000000000
-30650455593952239616.00000000000000000000
-30833206938540904448.00000000000000000000
-30833206938540904448.00000000000000000000
-1189.91476260434683354106
-11923022841358772224.00000000000000000000
259773.96347207343205809593
-1130788908505669042176.00000000000000000000
-2316698900777046528.00000000000000000000
-30833206938540904448.00000000000000000000
64079401737073950720.00000000000000000000
-121269886920116371456.00000000000000000000
-1090525893884261957632.00000000000000000000
-333.68011513070274531856
-1189.83691935148272023071
1325.37419919748344909749
-249.13213676512668826035
166147929942986227712.00000000000000000000
1439.40703750928423687583
-215637255423760039936.00000000000000000000
-30833206938540904448.00000000000000000000
-317519836156196618240.00000000000000000000
378905032785038868480.00000000000000000000
268.91135027392920164857
1705226265413596217344.00000000000000000000
1203.71451409449082348146
25.80251494018745717085
-30833206938540904448.00000000000000000000
1887.33904555755088949809
-30833206938531299328.00000000000000000000
-3729795257989028864.00000000000000000000
-30833206938540904448.00000000000000000000
-1352.30991895175088757242
-30833206938540904448.00000000000000000000
-30833206938540904448.00000000000000000000
-25645753865822629888.00000000000000000000
1155.86461276285513122275
754187528489562537984.00000000000000000000
-325189091367590559744.00000000000000000000
-294530557798.15625000000000000000
-30833206938540904448.00000000000000000000
-69203203091769270272.00000000000000000000
-1439549728263183269888.00000000000000000000
1054120667155579011072.00000000000000000000
-1119.12493069223410202540
-30833206938540904448.00000000000000000000
-855.98323766471014550916
266326018535616806912.00000000000000000000
-24069961330721931264.00000000000000000000
-115583078746751942656.00000000000000000000
-1507.81491090431154589169
1402806526967465377792.00000000000000000000
-1035.59321470872873760527
4745583776024688640.00000000000000000000
-30833206938540904448.00000000000000000000
-337175044146820481024.00000000000000000000
-158967125913159008256.00000000000000000000
823.43802292407337972691
-30833206938540904448.00000000000000000000
1704.14246239348517519829
-207609211932890529792.00000000000000000000
-238442418871431364608.00000000000000000000
-30833206938540904448.00000000000000000000
-207390434210447163392.00000000000000000000
-5415713201288692736.00000000000000000000
-181.62949234683463828333
-611190982205468704768.00000000000000000000
64043373752846064.00000000000000000000
-30833206943343484928.00000000000000000000
-30833206911975198720.00000000000000000000
-238442418871431430144.00000000000000000000
-30833206938540904448.00000000000000000000
-3921933560995227.00000000000000000000
-46849962034903965696.00000000000000000000
2363332159881.11914062500000000000
-73955552114718162944.00000000000000000000
-207609211932890529792.00000000000000000000
-238442418871431430144.00000000000000000000
-1242.47952156505562015809
-201.21967203646451594068
-172.54238638401011485257
-136547059299252584448.00000000000000000000
-208749597102336081920.00000000000000000000
8186.46757720845016592648
2717496740525020020736.00000000000000000000
5003.18431845748727937462
-207609211932890529792.00000000000000000000
-250275257661657481216.00000000000000000000
-181856710131315572736.00000000000000000000
-151264658974222188544.00000000000000000000
132466008949952446464.00000000000000000000
-284065920481813790720.00000000000000000000
7604661709.86750316619873046875
-136547059299252584448.00000000000000000000
3326600292515609837568.00000000000000000000
-3617724993733338333184.00000000000000000000
-136371573065036218368.00000000000000000000
14623568646626998272.00000000000000000000
-136547059299252584448.00000000000000000000
653455282021506088960.00000000000000000000
1280661504533277966336.00000000000000000000
10575841537240356864.00000000000000000000
-2361.98744633378828439163
-134207809609433464832.00000000000000000000
-136546889200252698624.00000000000000000000
-136547059299252584448.00000000000000000000
21263222606705.54687500000000000000
-5496682280176749379584.00000000000000000000
-136547059299252584448.00000000000000000000
-136547059299252584448.00000000000000000000
282453894450356649984.00000000000000000000
7090.58000857036950037582
3127029999211473408.00000000000000000000
-136547059299252584448.00000000000000000000
3645395603607628283904.00000000000000000000
2354224500714708664320.00000000000000000000
-136547059299252584448.00000000000000000000
-136547059299252584448.00000000000000000000
-7217.26166493889741104795
-1799268128904142.50000000000000000000
-1258430756699811348480.00000000000000000000
-135737731916074205184.00000000000000000000
-136547059299252584448.00000000000000000000
-136547059299252584448.00000000000000000000
-5270.94103943576101301005
-52801958297445990400.00000000000000000000
1150426.77698173839598894119
-5007779451953676812288.00000000000000000000
-10259666560584062976.00000000000000000000
-344156271232141950976.00000000000000000000
