2.4416509486
-0.5546445390
8.2069263847
-0.0072534452
-2.0935965053
9.2965432204
-1.6966947233
0.1479724050
3.9182284241
7.1540924262
-4.1231410913
5.4911863602
6.9308376459
6.5070569970
8.5071636089
-1.9565657452
-1.8162358778
2.4415641819
8.7040294130
8.2857376743
-2.2935552418
6.6917768187
-0.8999133659
8.1385994819
-3.0148863011
-0.1809599805
2.8767053426
6.1625899823
8.3788129451
7.8101424702
8.5525667406
-2.1933411136
-1.2862041525
9.1795673148
6.6970764669
0.1232544928
5.1676111769
-2.3661316776
5.8839086242
-1.8649942786
8.1753332619
1.5990401837
-1.7159823932
10.1897832714
5.3645909869
0.0080399768
-0.5848092163
2.8731483475
7.3390274820
2.4046662924
-1.3373898527
6.4524791468
-0.1963460940
-0.1721505004
0.1781968657
7.1698666656
-1.2037166093
3.3980065985
7.5202974695
2.3781298655
1.7807671778
7.8587472985
2.7124756718
9.3825873520
-0.7245351705
5.1672544330
2.5625070512
5.6654357768
-3.1115379213
3.3714939918
-1.6656991467
9.7035301383
-0.3411589189
2.6081662082
6.8340115535
2.0616848625
7.3283217109
5.1583147547
3.5983827182
8.2003082158
7.4166529123
6.4732811902
2.4329618334
6.3741306102
0.2382851957
5.2318400318
2.4968540492
-2.6242616040
1.4495212507
-3.8245938012
2.3715123954
8.1908182636
8.5471121718
7.7517789625
-0.9832864655
7.2225703764
10.7309549591
4.8074792095
1.6352140644
5.5718194911
-0.0981426057
-1.0244837139
1.0009127083
0.4582411091
-0.2263751819
0.0396628679
-0.3191704660
0.6087502839
0.2172518280
0.6875718730
-0.1480415771
0.7804271329
1.0740406093
0.5800200248
1.0890157321
-0.2481846224
0.8141423534
0.3683174474
0.8571786271
0.5495804121
0.7147369456
0.6162722004
0.1835744099
0.8331951687
-0.6902316551
0.8927487458
-0.6000174011
0.0766299123
1.2261586657
0.9130375008
0.2005764021
0.6195610428
-0.0086138037
-0.1395541563
-0.3083595147
0.9342551293
1.0879750976
-0.7673290018
0.0821951870
-0.5958331400
0.7353141154
0.9353603891
-0.6669747452
-0.1614145553
-0.7447846343
-0.7320925572
-0.5544760534
0.0151128592
0.7954117208
0.7061806899
-0.1702936410
-0.5374489016
0.8709128046
-0.9347850005
0.1071421882
0.5908633752
-0.6281791966
-0.9036112149
-0.0814664026
-0.1607721289
0.3755812033
0.9126680613
0.0080081001
0.8450614636
-0.7472135545
-0.7863530157
-0.7462140881
0.5914876509
-0.6866669708
0.9361980647
-0.6713496506
-0.3835944477
-0.2439840792
0.0512059941
1.0089779877
-0.7713708426
1.2597953137
-0.8363762551
0.2297279805
-0.1670158089
0.3166628786
0.7747255665
-0.8199221529
0.5229406955
-0.7963660950
-0.3058073261
0.6194463767
0.1061989070
0.2625743721
-0.6016014559
-0.7121005340
0.3955432849
0.1284090334
1.0304766154
-0.1875023323
1.2297392399
0.6524379347
1.1399435186
0.6443377129
0.3390345281
-0.0652690483
1.5170673514
-1.1549295254
0.3245772028
0.0470718604
-1.6418483305
1.1281488510
-0.1554343048
0.6582581265
-0.5287747563
1.7845173442
-0.1641792404
0.2344539001
-0.3091207809
0.0377360528
0.7384082007
1.1246588317
-0.0717445317
-1.3067200035
-0.7971030628
0.5853417440
-0.7946410843
0.7553286272
-0.1864992502
0.2415745516
0.1988792932
1.2273530587
1.0571284391
-0.5482022433
-0.4016268942
-1.4220506507
1.0134391182
0.4993538688
-1.1541966131
-0.4185971203
0.7884531846
-0.5200956872
0.0142804786
0.4619684129
1.6170571830
-0.7402223132
-0.5625582186
0.9262258824
-0.9479771072
-0.4501719638
0.8173291109
0.8128343525
-0.1116774600
0.0366496700
-0.8396735010
0.7309545494
0.7279345424
0.5751616385
-0.0794632768
1.1627566014
0.3535751630
1.7073243484
0.1605877263
0.1168719553
0.7513259829
0.8442462692
-0.0274921438
1.1150225090
-1.8475891124
0.5574338744
-0.4168596365
-0.1707996187
-0.2357083421
1.0715276097
0.4422362732
-0.0932682632
-0.4556225666
-0.5254728013
-0.3733240105
-0.5852738182
0.0769630985
0.1724073752
0.2707585536
0.2374365545
-1.2627696174
0.3715208627
0.6157531715
0.2148140178
-0.8722304025
0.0777531431
0.0415769907
-0.4627831781
0.6435438278
0.7779755820
1.5052142376
1.3946987319
-0.1058778207
-0.8473927729
-0.5384804837
0.0791480824
-1.1640965502
-0.1811716130
0.1784339675
-0.6526261184
0.8928381097
-0.1168243936
-1.4542324104
10.4536314024
-2.7263524139
-2.8941632237
10.9837650920
-3.7110455452
-1.3356895275
3.0168951818
6.9057726518
-7.1773870168
6.0795773572
6.9317331571
5.9275299634
12.5976837854
-3.7761967808
-3.5045585024
0.9360082412
10.3581364781
8.8935465164
-5.0145725281
7.7023235276
-1.5682234377
8.4993703732
-5.1610111520
-1.2080883224
1.6846296898
3.6162462914
8.4206153141
8.8991782690
11.7178944611
-3.3209995870
-2.9011690079
12.1411968228
5.7356837163
-0.0732515903
4.4064867500
-5.6887267272
7.4850203330
-3.2275997519
12.0231263561
1.3900918677
-2.2548692110
12.0807799295
6.2351438940
0.3825947831
-3.5348858843
3.2445220020
8.4906639476
2.4257866802
-3.0671337143
6.8347126759
-1.6409943238
-1.2413081954
-2.3156695861
10.0927474257
-1.6748152999
3.1722666085
9.7603601456
0.0235259735
-0.4293083071
6.4754629660
1.7968526098
14.2580349306
-4.2975813536
5.6674698642
0.2672220452
5.2096138115
-7.2568045155
2.3541095445
-3.2001346071
10.9068087911
-0.0985753605
2.9234507398
7.8617346607
2.1913704340
9.0919628217
4.9864330356
2.4067096430
11.6718905614
8.6691081717
8.0812530173
3.4028664059
7.3128175107
-2.4812710744
5.1788127978
0.7777348419
-6.7673595468
0.4453249632
-7.9309702129
-0.3347874800
6.9081574909
8.5766575802
7.3550742833
-4.5385700719
9.6912009459
13.1887355270
4.5660161763
0.2862443015
6.8107498277
-0.6170915414
-1.4947383416
1.5926144831
-0.0826615807
-0.9463788248
1.0419699301
-0.3673174567
-0.8284340594
-0.6647522017
1.1431101078
-0.1851729687
0.8667904026
0.1468699692
-0.4138222558
1.8503939174
-0.0527871228
-1.2904084612
-0.5453738462
0.9337660347
1.3371354617
-1.4953724643
0.5941505727
-0.7237838556
-0.2686077554
-0.6629265785
-1.0688985875
-0.0117715829
0.4791693885
0.9656084412
0.8391063748
1.2433259279
0.1812014011
-1.1486908219
1.3981493507
0.4612773696
0.2118371648
-0.6010367325
-0.8648907356
-0.3185689226
0.1632352871
1.4925025897
0.3700230158
-1.3094781753
1.3146890841
-0.3769828744
0.2710838583
-0.8054458528
0.2713577230
0.9958911982
-0.6811864642
-1.3570814551
0.3606258575
-1.0209539035
-0.2720961060
-1.4619392287
0.9039973572
-1.4781238658
-0.0699496884
-0.0254462001
-0.8847359040
0.3388803301
0.6530354529
0.7252999756
1.9001883544
-0.5814041985
0.1964415359
0.7401711197
0.1166834372
0.0548158010
1.0394145128
0.3170543727
0.1807997543
0.6184788529
-0.0637714366
-0.0273862925
0.5059444723
0.1733329799
0.5010493945
0.9276115682
0.5759194963
1.2177465967
0.1690966205
-0.0750820174
0.0626637752
0.3993998757
0.5859963741
-0.8215861438
-0.1815173276
-0.3545989955
-0.1620460047
-0.4888036497
-0.1328927413
0.3102619569
0.5099697312
-1.4611343046
0.7190152941
0.4873945214
0.8123896493
-0.6047860349
-0.5541271773
1.1733161114
0.8010296646
-3.0417631997
1.8663119107
2.4838147273
-3.7187267738
3.7700233795
1.5549171661
-0.6051032955
-0.5083341470
4.4959462189
-0.5500657834
-1.1647238034
0.7395612225
-3.1025430381
1.4807161487
1.7754586859
1.2532813747
-1.9852934599
-2.2428785168
2.2578378344
-0.7719386284
1.8113005648
-2.2301732395
3.2105014520
1.7294493400
1.7835930631
1.9987744236
-2.3057628358
-0.6216148922
-2.7899622290
3.3531019703
2.2677528787
-3.9279053469
-0.4133553809
0.7096592838
1.2581736437
4.1297100512
-0.6237405294
3.2889516411
-2.4780085362
1.3762199055
2.3262114025
-4.2941473195
0.1776756143
1.6348659814
1.7919866654
1.1347362614
-2.2498026803
1.3752993510
3.0790995245
-1.0942837965
1.0044375094
1.4280949681
0.7523971022
-1.8681571176
2.2303679439
0.4085805469
-2.4662161483
2.1885085296
0.5402045731
0.3145229694
0.9800650538
-4.6474663820
3.3469735707
0.3278841969
1.1505228573
1.0596940439
4.2737863179
0.2554962881
2.3593119189
-3.5839032037
0.2662708345
1.5204411054
-2.5873386002
0.2627811160
-1.6277695799
0.7639479406
0.4335479877
-4.0043308952
-2.7356351205
0.0856583792
0.2301261819
-0.9884815588
1.9661747587
1.5097369817
1.6967320548
3.4043583351
1.6767316431
3.5666205596
0.5135443690
-1.4717101719
-1.6398227533
-1.4009969629
3.1252042742
-1.9012758238
-3.9710487278
1.2401157749
1.6751513214
0.0346431993
-0.7474662061
-3.4415502046
12.4789751164
-2.6680597633
-4.9005337462
14.0752463962
-4.8754717500
-3.0390238229
4.4334270625
7.1757950405
-9.3232185780
6.8464903267
8.4503784190
5.7572345785
15.0563785193
-3.6665760150
-5.4121527339
0.6506603284
11.1329072799
10.7864072855
-6.1423961979
7.4297014655
-2.3007202216
9.4217198535
-5.6899329993
-2.5594282262
2.8440076483
5.3248245773
10.5837312619
10.0417260598
13.1895474122
-4.2617530049
-3.7608748194
13.2987929190
6.7731148468
0.2886804763
4.8266546801
-8.1662889195
7.4754148423
-5.4327180906
14.1183785799
0.9749030454
-3.7003867976
14.7234245990
7.5999265002
-1.7566808171
-3.2228262187
3.0168014753
10.1803669539
3.6230269311
-3.6831919178
8.1654951555
-2.3870786698
-0.4607598662
-3.1738639580
11.2259983187
-2.6075322895
3.2876330868
11.2703781404
1.2767758421
-1.3868029645
8.1742555293
1.5958751728
15.3416605855
-3.5034670526
4.3993211590
0.2073671852
5.5339346098
-7.8518761315
2.7882503640
-2.8558004597
14.6755337366
-0.2577871852
3.0130301740
10.6957551127
1.6328924614
10.7004562976
6.0075603296
2.1495508014
14.7185103027
9.9155253294
7.8509098522
2.0421324969
6.5742683229
-2.6002187595
4.5537372506
1.3835900610
-8.2079469636
0.7388787942
-10.4039373092
0.8306601303
8.2547534961
10.2658772436
8.9161765456
-4.6833529660
11.4558683465
15.5427353305
5.2363260795
1.4381032618
6.1507700697
0.0642983080
0.2142100680
0.7377424569
-1.3280358438
-0.3676015080
1.3270006353
-1.1748261648
0.0311163888
0.8717915585
0.6489888083
-1.0419886748
0.3886880379
0.8468677562
-0.0375378718
0.7088548199
0.3867262026
-0.3472795916
0.8515049382
1.2579352193
-0.3397199371
-1.1015513662
-0.2737052849
0.1288359148
-0.1528260690
-0.7024775424
-1.0629925120
0.3108455510
-0.8527390453
1.3245445575
-0.1515304351
1.7267400217
-1.1456633558
0.3530573613
1.4379471103
-0.3209129209
-0.3511736031
0.4548264503
0.2200926183
1.1793907024
-1.3532690873
1.5632583892
-0.3582052629
0.4885380515
1.0223148861
0.8196776071
0.3204299133
-1.4105872115
0.8025951352
1.4535191293
0.6697996722
0.0405929476
0.8495626312
-0.8369300069
-0.5289000022
0.5911245358
0.0204648137
0.4472898919
-0.5669630605
1.0638907391
0.4654350760
0.7747302851
0.9195473039
0.5247481873
0.4250972114
-1.1182422449
0.0948107788
0.7604544428
0.8485588574
-1.6650877785
1.0168012729
-0.3975881608
0.7678262167
0.8691532006
0.8903306921
0.6703337028
0.0975396650
0.6540231241
0.4909935845
-0.1688707846
1.4669904658
0.5584766192
1.0457293501
-0.0096468991
0.4789607835
-0.4535055541
-0.4237312475
0.6408320594
-0.2688364588
-0.7052647215
-0.9674722429
0.7939587226
0.5532628807
1.1380683262
1.0710888808
-0.8465683562
0.3254783951
0.3419226505
0.6995741797
0.6538872464
0.9391431515
2.4861117664
2.0141318398
-4.6420205528
2.1505429951
4.7844026807
-6.1895827286
3.9955740020
3.6120476992
-0.6638616006
-0.1456698192
7.6026910257
-0.0271230423
-1.3723922036
-0.6117955373
-6.1026225385
4.2496388318
3.7206101554
2.0383782040
-4.6319469863
-3.4401779082
5.2900606289
-2.0846134938
2.8434775189
-3.2016236741
4.6510629145
2.6467027242
1.4429640534
1.7029022099
-3.2300556005
-3.0723740564
-5.6275255695
4.3959022512
3.2751223147
-6.3430721727
-0.9100010452
2.6291850443
1.3198858946
5.2785342783
-1.5088662907
4.9721225076
-6.8202442740
2.3413511731
2.6414188900
-7.4989323289
-0.2514281982
1.3794959321
2.8115947285
0.5726228207
-2.6394169404
0.1997033696
3.8793806984
-0.2766117086
2.3068236415
1.0145523381
1.7371338665
-4.5844891451
1.9833326805
-0.1433272424
-4.6161591204
1.5616790122
1.6851688686
-2.1460556844
1.6215271856
-6.5944753740
4.9559397196
-0.0454054214
2.2978934507
0.3040622983
6.9296868107
0.1007674428
2.5162347868
-6.0465171577
-0.4811890877
0.0221274716
-4.1202845013
1.0596217021
-4.7250437278
0.2496302621
0.8200654561
-5.4133825588
-3.5270406721
-0.5959249587
-0.1773416294
-0.0421794640
2.6543868763
-0.0949072545
1.7930424393
6.4098061800
1.5320190078
7.0385812195
1.3304791270
-1.8340572481
-2.4656813581
-2.5472203163
3.6679845581
-3.6476783373
-6.6702557559
0.4929776543
1.7650835738
0.4159310500
1.8678220592
1.3626203341
5.8736124239
-0.4169771846
1.0457468372
5.9518584205
0.9725210355
1.2473221901
2.0763607587
6.2786815150
-0.4947474140
5.0160077410
5.9563485409
4.9734283194
5.4636633761
1.4539953464
1.4104887218
0.9387225544
4.6054006293
6.7289000755
1.0164479117
5.3392271918
0.5652954623
5.3459928062
0.0417667050
0.5246500715
2.0228689901
6.0428762468
5.5187772367
6.3616754901
5.2697669077
1.2318824915
-0.1916056083
5.1930919605
5.2649699329
1.8128215514
5.4681481846
0.3300502714
4.6095165451
-0.1436001037
5.7778254085
2.2469968425
-0.2482008736
4.8173695105
4.7139170506
1.3092774448
0.1780612714
1.9489752765
3.9682649417
3.6134527955
1.3423932926
5.5177973413
-0.0033864722
0.6108422720
-0.2718065745
4.3929985917
0.0327652035
1.7454360099
4.5941158066
2.4288252521
0.9740980760
6.2411269233
2.9447444026
4.4045706161
0.7847089988
5.1409012299
2.5703499292
6.4096125961
-0.8493461354
3.5720546475
0.1390997344
5.3051532321
0.6087108300
2.6002597652
5.7542631137
3.3083852394
4.9158058233
5.9465590936
2.2044445791
5.7335334580
5.1707557109
5.6821796262
2.2003004715
6.2126458803
0.8250099268
6.3263442962
2.2788660708
-0.2908543581
1.6927583595
1.0035899114
2.4891572150
5.7682880960
6.6277531910
5.5575992176
-0.0841954922
5.6787455981
4.4477694387
5.2907968858
2.5908814174
5.7691959480
0.1641264106
0.0433869523
1.0864171453
0.1580813968
0.2398852615
1.2144689266
-0.3939431556
-0.5050648048
-0.1180075902
0.5509512721
-0.4941114805
1.1091834701
0.2835690057
-0.4065593980
1.4899664319
-0.5437690929
-0.8985918383
0.5348808662
1.0967668877
-0.4957045150
0.4672313020
0.7499275972
-0.1560450338
1.3550746368
-1.0671763309
-1.0650476134
0.5345938258
0.1053482664
1.2144345332
0.8391609167
1.5752016235
0.1173361848
-0.0678006406
0.9788688096
0.0444413255
-0.7475678006
0.2326602796
0.2328718322
0.8327530828
-0.1620240811
1.0265879661
-0.4966341341
-0.2329891253
1.3643760262
0.6045292596
0.1084703727
-0.0445474841
0.6087066701
0.9024843800
0.0441858516
-0.7226628366
0.9026421281
-0.4623591510
0.0060470133
-0.5311263443
-0.2720411103
0.6419758048
-0.0742097848
0.3116674880
0.1843588346
0.0254080208
0.9845182271
0.2736194692
-0.1452752545
0.5241444119
0.2045591258
0.4610451646
-0.0454286091
0.4041919259
0.8181296466
0.4823181041
-0.2023941740
0.4770297239
0.6212859329
0.9136412142
-0.2591585178
0.5505602886
0.7959046415
0.4013222877
1.0445192849
1.0437736383
-0.1929572402
-0.4593733624
0.2532440783
-0.7742798023
0.6180704440
0.3965158198
-0.2427124853
-0.6448383578
-0.5382777241
0.0609526242
0.4707940770
0.5513756604
-0.0645284078
0.1790821308
1.4661598052
0.3584756203
-0.6953344896
0.1443601809
-0.6998580908
0.1315651863
0.1747927833
1.3166271044
-0.4529164869
-0.3600910024
1.3350388794
-0.5833713164
-0.1091643836
0.2559938378
0.9238999510
-1.3585932042
0.8138501303
1.4538228983
0.7134017249
1.0085256968
-0.8700426747
0.7313013351
0.2299461788
1.6834091390
0.4465255029
-0.6397222534
0.2638167164
-0.5535145382
1.7021620564
-1.0925419153
-0.6746878380
0.7218539977
0.9284247015
1.6609293973
1.9954948936
0.6103833293
-0.6054437155
-0.2261839861
0.5894341266
1.2952032703
0.4572870698
-0.0839556214
-0.1215289551
1.5346310288
0.7900569772
2.3468483689
0.2391828449
0.8489059199
1.8855134260
1.3458496846
-0.2906033346
0.0077460704
0.8062082802
1.3236458422
-0.2916940197
0.2816592143
-0.1793244303
0.0781804959
-0.5571191817
0.9637884308
1.4611099083
0.0254729245
0.4058169296
1.9072561830
0.2301969959
0.2369412732
1.0742479693
-0.2711440482
0.8582714195
-0.6414569210
-0.1493037006
0.0133578434
1.5946904619
0.2687702488
0.2456044097
0.8858102428
1.8046211439
0.3309385549
0.0265405037
1.1207598400
0.1079703221
1.3568158829
0.8672811172
0.4744303322
0.7969687904
0.3404880225
-0.0531155994
0.9241758734
-0.0333039353
0.5157201767
0.9226538873
1.1907570846
-0.7655807342
-0.4837216135
-0.2548363578
-0.5284062197
0.5339392135
0.3637588095
1.0855695903
-0.8452740597
0.5500729530
1.5280535139
0.1644721533
0.0763185386
0.2194652080
1.2421725614
0.1206805530
7.1911855121
1.3494224179
0.7798712762
5.4547554134
-0.5570038696
1.2366881542
2.9401188973
5.3523668581
-1.9170570941
4.7700041680
6.2892905208
5.6199023984
6.2069813765
0.7833315714
0.3856677692
1.8538573210
6.1525639674
5.6598447554
0.3380767754
6.1433081505
1.4357074463
5.4946550459
0.4627267512
0.1130283567
2.5793063765
5.6883738787
5.6270819028
6.6810699205
7.0052501188
0.4914505298
-0.1081275792
6.1825736731
6.0359439152
0.3431122841
5.6674022916
-0.8397174144
4.9672270580
0.3574483901
7.3266944557
2.8451856089
-0.1232405461
6.3367806193
6.3258888464
1.5998895510
1.0935601440
1.6542425732
5.7901009962
2.4441370065
-0.1369728566
6.4204918332
0.5948979427
0.1189347977
0.6406993001
5.0164990579
1.3116525266
1.8041803671
5.9568114994
1.8189459643
1.2125201671
6.5974313501
1.9600742730
6.8698452817
-0.8594851048
6.1392943946
2.1301845183
5.0903962483
-0.7424851134
1.6758026568
-0.7105825657
5.5163561359
0.6743110010
2.2558655702
5.3346384635
2.1862180711
4.8210014930
5.4875729081
1.9999743788
6.6518573983
6.2809946854
5.1846202779
2.4977582584
5.3625841397
0.1696140541
5.1560033991
2.3423503782
0.2601083206
1.7184848171
-1.6859416487
1.4096600345
6.7578980983
5.6404620689
5.2704619657
-0.6466153356
7.4609621784
6.8155492437
4.2817911074
0.9625913508
4.8087530207
0.0111125721
0.1537894803
-1.1601295110
1.2505340104
-0.0099233842
-0.8637933152
0.5445305926
-0.2598996230
-0.2349822971
0.5844852071
0.4361292453
0.0208283238
0.8673134973
0.8896872903
-1.3251907090
-0.3847019758
-0.1544849029
-0.1708736013
-1.2192280906
-0.7351764027
-0.2839771437
-0.7982247067
0.3976687786
0.8313477678
0.0943928664
-0.5355275910
-0.6899269234
0.8607320742
0.3000542205
0.3158310005
-0.7197501796
0.0365439068
1.4694250527
-0.1329876292
0.7521804859
0.1131888422
0.4453923039
0.8265572387
0.4495855835
0.4046145043
0.0562379154
0.7371629108
0.2860353897
-0.6802366125
0.3088997206
0.9798348266
0.6828352542
0.6620520893
0.3501690145
0.4715768580
-0.1508734878
-0.4632515196
-0.2739773704
-0.2339978791
1.0250192377
-0.4127646640
-0.0853967426
-0.5005029687
-0.2830808894
-0.3763787600
-0.1657236021
-0.8484371499
1.1080995289
-0.1247331658
-0.4674488972
-0.4715394871
0.5376332920
-0.4280088118
0.0357508820
-0.6472136323
-0.1422849154
-1.3795213055
-0.0891679232
-0.3452558046
-0.1875035086
-0.4940489491
0.3121002271
0.2237649547
0.9622836154
-0.1199455090
-1.0903467180
-0.1299359378
0.3788141340
-0.7572445041
-0.2539509405
0.6587728138
-0.2270841966
1.1441760851
0.3870085272
0.1731916671
-0.6915330996
-0.2794689442
-0.3639689366
0.0594078878
0.0871216874
-1.1139337035
-0.3262367887
0.0851330865
-0.0935591336
0.8816109394
1.2582775442
0.2964050349
-0.6291143660
-0.1144963307
0.6784495620
-0.7830585736
0.6409493721
1.2427741954
-0.0590649734
0.7346756268
0.6996476975
-0.2000576511
1.0082843262
1.0373219537
-0.6273002471
1.3862394738
0.1909349272
0.5977033156
-0.7931966223
-1.1890290094
2.2538615644
0.4730700116
-0.0410670261
0.8679314765
1.3685937379
0.2652170040
0.5505625011
0.7562380200
-1.1096601088
-0.0685006916
0.1084001705
0.5752127051
0.0659635604
-0.5864116987
-0.1849424934
0.0659115756
-0.0972928741
0.8329304090
0.5239966801
0.7529254301
-1.8161125723
1.1581779773
1.5352795504
-1.7888127987
0.6713801111
1.0046925974
1.3478044287
1.1619852235
0.2427248697
-0.3314182322
0.2713848376
0.9388368304
1.6602287972
0.7073665842
0.7717894283
-0.3868827904
1.1979085003
0.6712884722
-1.0516258635
1.4724533646
1.4645847338
-0.0335715778
1.0178143120
-2.0313052684
0.8677102165
0.1086670560
0.6177833412
0.2372811445
1.9744304222
1.1447164131
1.6027130355
-0.3253732795
-0.7371256006
0.1357197911
-0.7251968734
0.4689885441
-0.8842590218
1.1085437531
1.2886971628
-1.6097108871
0.2007760523
0.0704374659
0.5510030666
0.2708964293
1.5262488862
1.3299563072
1.0399839349
0.7694713069
-0.1465127714
1.8166772073
1.2979110911
-0.1334580491
0.1886140116
0.3674211069
0.2014228742
-1.0855615921
-1.7490841380
1.0089087040
0.9465325901
0.5120117177
1.4587425695
1.1282722333
8.1985660017
1.3355804104
0.2882317360
8.2151080885
-1.5806288691
0.5809371795
3.7482764074
5.0555886443
-3.5882382862
6.0122638217
6.9106642564
5.2509184351
8.5297442827
0.5995754298
0.4838939514
0.9420313227
7.8771944657
7.7641989723
-0.7554606584
5.5368689939
1.5690211231
7.5662192395
-2.2531172986
0.0801301153
1.4382631118
5.6833669208
7.0288273399
6.8132879673
8.5949034144
-0.3912431106
-0.3314734159
8.4626475892
6.4854062832
1.2198540318
6.1402094683
-2.1927948013
5.9255041543
-0.5790400555
8.9905907093
3.0041533878
0.5745692996
7.4541667616
5.5185945529
0.4793042163
-1.1469337479
3.2136501950
6.3649674117
3.2432668264
0.0547017264
6.3126640635
0.4843184830
1.7633723960
0.1214784482
7.6790668980
0.8298223549
3.0775032311
6.1783065295
0.8979511477
1.4672911030
5.6837715485
1.3955113352
8.8872957525
-0.5232864749
4.9978869821
0.5468536242
6.6311198382
-1.8981888217
2.7790153452
-0.0196956967
8.2723386579
-0.6571578337
3.0980676801
5.7762806620
2.8170908842
7.0608230405
4.6818970807
1.4525739710
7.7976706554
6.3749291214
7.2564130711
3.6750908938
6.7278049176
-0.3605442715
5.9639911286
1.7090070936
-1.9992793110
1.2723662010
-3.8621000522
1.1767778453
6.6677694924
6.3416580484
7.4894039177
0.4333476740
8.4350132476
9.1373906894
5.2254848604
1.9898588934
5.8427598769
-0.2442381261
0.6988767864
0.7089787956
0.8152009239
-0.3097867292
-1.0839493983
0.3739592078
-0.1961606781
0.1192921886
-0.5399511223
1.0378345734
-0.0124332993
-0.1243234067
0.2379152595
-0.8765391513
-0.3107713476
0.8196476059
0.3367229738
0.6128648855
-0.5944808979
0.5026695048
-0.0402136727
0.9042438253
-0.5661817348
0.3939545439
-0.1037991129
-0.0333215440
0.6331928311
-0.1695846586
-0.3971848553
0.6878374077
1.3551252701
0.6885248585
-0.0778588074
-0.4489448733
0.6250057150
0.0911523240
1.1824402239
0.0074256773
0.2281271751
-0.8526796504
0.8027873185
-0.0460121258
-0.2457309752
-0.7431676756
0.2320611459
0.7285165825
0.9878244872
0.3738330614
0.2593662110
0.0453799966
-0.3858774425
0.9780142254
0.0996895120
0.9001246562
0.6277565608
0.6317705799
0.0184973034
0.3732640266
1.0336053652
0.6760121355
0.2173918777
0.1814060208
0.4159661713
1.2960156448
0.7548669807
0.0293059657
0.4890217433
1.4360743270
-0.5092754778
-0.1668097002
-0.1865688665
-0.0715922047
-0.7203158910
0.8616347987
-0.2239771232
-0.3426162894
-0.1120091011
0.6412150614
-0.0918925898
-0.7827769765
-0.1110637793
-0.1924546199
-0.1490226516
-0.4187667286
-0.6451764618
-0.7074541697
-0.1474354315
0.1742543723
0.4246997229
0.3187039809
1.0538521955
0.2891722991
-0.3609050452
-0.5185026507
0.1579925858
0.7617415478
-0.7590005115
1.0098948939
0.4308403840
1.1458486135
1.4983088996
-1.1767051508
1.1460265264
2.0465459814
-2.2952087903
2.8289884737
0.9741409230
-0.7110375925
-0.4611135268
2.7904986069
0.1714355633
-0.7956101145
0.1015436305
-2.5871761976
2.4306324178
2.3625842082
1.9563687586
-1.8420874700
-2.1300907841
3.5244388715
0.5866579945
1.1727675852
-1.2501680233
2.6209567154
2.4611244519
0.8698916587
0.4129355203
-1.8231827465
-1.1251145345
-3.4419709485
2.2462665363
2.9330362954
-2.5119567124
0.4636270749
0.9576965672
1.1237481502
3.8978518317
0.2895858560
1.7522593477
-3.6452905909
0.5533173545
1.5078204105
-2.9527325961
-0.5628472574
1.9055649828
1.8443863940
0.8354229014
-1.4096036991
1.4914839131
1.1633368443
0.4107279841
0.4530694965
1.4415400935
1.8971876313
-1.4351986725
1.8985909454
1.1171263836
-1.9950992319
1.7077725621
1.5280494880
-0.5389982995
0.5178997188
-3.6643394812
1.5505190143
0.3826840157
0.9498621856
0.2858285883
2.8399411295
-0.2991215147
0.8322069896
-2.7767361783
0.1499853085
0.4810645658
-1.1720772861
0.4236822715
-1.1848878533
0.8731416312
0.9074220494
-3.1747414313
-0.6390165784
0.1788111923
0.8469883320
0.2152373697
0.9536243617
0.3015946496
1.0083194548
3.8972850953
1.2741700624
3.1678801118
0.7041587270
-0.2084451424
-1.7117745089
-0.2115574976
2.4473483764
-2.1759814138
-2.7493002684
-0.0559976484
1.5794091821
0.5460793511
1.6316530945
1.7401020891
6.1242921055
1.0145639425
1.1824953157
5.2346610666
1.2976382260
1.4446125119
2.6652520138
5.3166331308
1.8328044868
4.7970959335
5.8444835817
5.2176214312
4.7415117988
-0.0819755429
1.6817283333
1.5865392401
3.9284892869
6.2032760423
1.7009278524
4.8813489031
0.1176743948
6.0680336573
-0.1405108306
0.5840269336
2.2854687703
5.9401921412
6.1931787597
5.8244354691
5.7383402127
-0.0348785371
0.2992946346
3.9653449612
5.5915105919
2.0456663673
6.4715692791
-0.1120977501
5.2939237982
0.7091692417
5.2699166191
3.7595211055